<Root>
  <ActivationFunctions>
    <Fn id="0" name="SteepenedSigmoid" prob="1" />
  </ActivationFunctions>
  <Networks>
    <Network id="209921" birthGen="1743" fitness="910">
      <Nodes>
        <Node type="bias" id="0" />
        <Node type="in" id="1" />
        <Node type="in" id="2" />
        <Node type="out" id="3" />
        <Node type="out" id="4" />
        <Node type="out" id="5" />
        <Node type="out" id="6" />
        <Node type="hid" id="123" />
        <Node type="hid" id="129" />
        <Node type="hid" id="191" />
      </Nodes>
      <Connections>
        <Con id="22" src="0" tgt="3" wght="-6.70787212870457" />
        <Con id="29" src="1" tgt="3" wght="4.2493058946335012" />
        <Con id="83" src="1" tgt="5" wght="4.7728978066264487" />
        <Con id="83" src="1" tgt="5" wght="4.7728978066264487" />
        <Con id="83" src="1" tgt="5" wght="4.7728978066264487" />
        <Con id="90" src="2" tgt="4" wght="-2.3695703947273041" />
        <Con id="93" src="2" tgt="6" wght="0.68760381244162938" />
      </Connections>
    </Network>
  </Networks>
</Root>